<?xml version="1.0" encoding="UTF-8"?>
<PMML version="3.0"><Header copyright="Copyright 1984-2017 TIBCO Software Inc. All rights reserved."><Application name="STATISTICA Automated Neural Networks (SANN)" version="2.0"/></Header><DataDictionary numberOfFields="10"><DataField name="Hydrocephaly" optype="categorical"><Value value="0"/><Value value="1"/></DataField><DataField name="wavelet-LHHglcmIdmn" optype="continuous"/><DataField name="wavelet-LLLglrlmShortRunEmphasis" optype="continuous"/><DataField name="wavelet-HHLglcmIdmn" optype="continuous"/><DataField name="wavelet-HLHglcmIdmn" optype="continuous"/><DataField name="wavelet-LLLglcmIdmn" optype="continuous"/><DataField name="wavelet-LLHglszmSmallAreaEmphasis" optype="continuous"/><DataField name="wavelet-HHLglcmInverseVariance" optype="continuous"/><DataField name="wavelet-HLHglrlmRunEntropy" optype="continuous"/><DataField name="wavelet-LHHgldmDependenceEntropy" optype="continuous"/></DataDictionary><NeuralNetwork modelName="koll_veri_r_MLP 9-4-2" functionName="classification"><MiningSchema><MiningField name="Hydrocephaly" usageType="predicted"/><MiningField name="wavelet-LHHglcmIdmn" lowValue="0.917333" highValue="0.986429"/><MiningField name="wavelet-LLLglrlmShortRunEmphasis" lowValue="0.902166" highValue="0.991405"/><MiningField name="wavelet-HHLglcmIdmn" lowValue="0.903094" highValue="0.987538"/><MiningField name="wavelet-HLHglcmIdmn" lowValue="0.868482" highValue="0.991245"/><MiningField name="wavelet-LLLglcmIdmn" lowValue="0.822700" highValue="0.993056"/><MiningField name="wavelet-LLHglszmSmallAreaEmphasis" lowValue="0.701243" highValue="0.948543"/><MiningField name="wavelet-HHLglcmInverseVariance" lowValue="0.371006" highValue="0.563095"/><MiningField name="wavelet-HLHglrlmRunEntropy" lowValue="2.961127" highValue="4.512459"/><MiningField name="wavelet-LHHgldmDependenceEntropy" lowValue="3.057476" highValue="5.343786"/></MiningSchema><NeuralInputs numberOfInputs="9"><NeuralInput id="0"><DerivedField><NormContinuous field="wavelet-LHHglcmIdmn" shift="-1.32762570046891e+001" scale="1.44726662346995e+001"><LinearNorm orig="9.17333184459000e-001" norm="0.000000"/><LinearNorm orig="9.86428953254000e-001" norm="1.000000"/></NormContinuous></DerivedField></NeuralInput><NeuralInput id="1"><DerivedField><NormContinuous field="wavelet-LLLglrlmShortRunEmphasis" shift="-1.01095212207482e+001" scale="1.12058339117391e+001"><LinearNorm orig="9.02165898618000e-001" norm="0.000000"/><LinearNorm orig="9.91405129529000e-001" norm="1.000000"/></NormContinuous></DerivedField></NeuralInput><NeuralInput id="2"><DerivedField><NormContinuous field="wavelet-HHLglcmIdmn" shift="-1.06945069141918e+001" scale="1.18420778869383e+001"><LinearNorm orig="9.03093782721000e-001" norm="0.000000"/><LinearNorm orig="9.87538422382000e-001" norm="1.000000"/></NormContinuous></DerivedField></NeuralInput><NeuralInput id="3"><DerivedField><NormContinuous field="wavelet-HLHglcmIdmn" shift="-7.07443572302649e+000" scale="8.14575109019715e+000"><LinearNorm orig="8.68481696125000e-001" norm="0.000000"/><LinearNorm orig="9.91245083924000e-001" norm="1.000000"/></NormContinuous></DerivedField></NeuralInput><NeuralInput id="4"><DerivedField><NormContinuous field="wavelet-LLLglcmIdmn" shift="-4.82930992696994e+000" scale="5.87007151729343e+000"><LinearNorm orig="8.22700355991000e-001" norm="0.000000"/><LinearNorm orig="9.93056031736000e-001" norm="1.000000"/></NormContinuous></DerivedField></NeuralInput><NeuralInput id="5"><DerivedField><NormContinuous field="wavelet-LLHglszmSmallAreaEmphasis" shift="-2.83560599785252e+000" scale="4.04368255942666e+000"><LinearNorm orig="7.01243472053000e-001" norm="0.000000"/><LinearNorm orig="9.48542805100000e-001" norm="1.000000"/></NormContinuous></DerivedField></NeuralInput><NeuralInput id="6"><DerivedField><NormContinuous field="wavelet-HHLglcmInverseVariance" shift="-1.93142696168136e+000" scale="5.20591680298813e+000"><LinearNorm orig="3.71006113769000e-001" norm="0.000000"/><LinearNorm orig="5.63095238095000e-001" norm="1.000000"/></NormContinuous></DerivedField></NeuralInput><NeuralInput id="7"><DerivedField><NormContinuous field="wavelet-HLHglrlmRunEntropy" shift="-1.90876318508715e+000" scale="6.44607100239137e-001"><LinearNorm orig="2.96112652867000e+000" norm="0.000000"/><LinearNorm orig="4.51245911503000e+000" norm="1.000000"/></NormContinuous></DerivedField></NeuralInput><NeuralInput id="8"><DerivedField><NormContinuous field="wavelet-LHHgldmDependenceEntropy" shift="-1.33729715026055e+000" scale="4.37385973558703e-001"><LinearNorm orig="3.05747607629000e+000" norm="0.000000"/><LinearNorm orig="5.34378624729000e+000" norm="1.000000"/></NormContinuous></DerivedField></NeuralInput></NeuralInputs><NeuralLayer numberOfNeurons="4" activationFunction="exponential"><Neuron id="9" bias="-3.19055687762157e-002"><Con from="0" weight="4.22548921540852e-002"/><Con from="1" weight="-1.12277775349271e-002"/><Con from="2" weight="-2.46299878503063e-002"/><Con from="3" weight="-4.72848047487812e-003"/><Con from="4" weight="-7.48916441284072e-003"/><Con from="5" weight="4.01866742189355e-003"/><Con from="6" weight="2.84373942272425e-002"/><Con from="7" weight="5.10991047586978e-002"/><Con from="8" weight="2.65148473599870e-002"/></Neuron><Neuron id="10" bias="-5.51203177508982e-003"><Con from="0" weight="-1.03909768927553e-002"/><Con from="1" weight="-3.44406439290143e-002"/><Con from="2" weight="3.20531129761922e-002"/><Con from="3" weight="-7.22858862208853e-002"/><Con from="4" weight="-1.45813555482368e-002"/><Con from="5" weight="-1.20225562223597e-002"/><Con from="6" weight="-1.40076544452033e-002"/><Con from="7" weight="-2.91545710381248e-003"/><Con from="8" weight="3.06262578780076e-002"/></Neuron><Neuron id="11" bias="2.23802577028466e-002"><Con from="0" weight="4.47748851089463e-002"/><Con from="1" weight="2.27728701040738e-003"/><Con from="2" weight="9.21508778116797e-003"/><Con from="3" weight="7.49163251642316e-003"/><Con from="4" weight="-2.10407927618595e-002"/><Con from="5" weight="3.37552313509987e-002"/><Con from="6" weight="1.77694010649040e-002"/><Con from="7" weight="3.40413251350058e-002"/><Con from="8" weight="6.81432306324670e-004"/></Neuron><Neuron id="12" bias="1.96340551194468e-002"><Con from="0" weight="-2.39951767467135e-002"/><Con from="1" weight="8.41052283935742e-003"/><Con from="2" weight="6.08180842963731e-002"/><Con from="3" weight="-4.15485230883548e-002"/><Con from="4" weight="-4.59836763597824e-002"/><Con from="5" weight="-1.40202414881502e-002"/><Con from="6" weight="-2.73109094146321e-002"/><Con from="7" weight="-1.45717760902362e-002"/><Con from="8" weight="-6.17134003529567e-003"/></Neuron></NeuralLayer><NeuralLayer numberOfNeurons="2" activationFunction="tanh"><Neuron id="13" bias="1.20969109201107e-001"><Con from="9" weight="2.17999701430714e-001"/><Con from="10" weight="1.13492615331425e-001"/><Con from="11" weight="2.94748919439938e-001"/><Con from="12" weight="1.38127969195661e-001"/></Neuron><Neuron id="14" bias="-4.41725663059279e-002"><Con from="9" weight="1.16997178778815e-001"/><Con from="10" weight="7.69943327156512e-002"/><Con from="11" weight="2.24990206990042e-002"/><Con from="12" weight="1.46340253894000e-001"/></Neuron></NeuralLayer><NeuralOutputs numberOfOutputs="2"><NeuralOutput outputNeuron="13"><DerivedField optype="categorical"><NormDiscrete field="Hydrocephaly" value="0"/></DerivedField></NeuralOutput><NeuralOutput outputNeuron="14"><DerivedField optype="categorical"><NormDiscrete field="Hydrocephaly" value="1"/></DerivedField></NeuralOutput></NeuralOutputs></NeuralNetwork></PMML>
