<?xml version="1.0" encoding="UTF-8"?>
<PMML version="3.0"><Header copyright="Copyright 1984-2017 TIBCO Software Inc. All rights reserved."><Application name="STATISTICA Automated Neural Networks (SANN)" version="2.0"/></Header><DataDictionary numberOfFields="10"><DataField name="Hydrocephaly" optype="categorical"><Value value="0"/><Value value="1"/></DataField><DataField name="wavelet-LHHglcmIdmn" optype="continuous"/><DataField name="wavelet-LLLglrlmShortRunEmphasis" optype="continuous"/><DataField name="wavelet-HHLglcmIdmn" optype="continuous"/><DataField name="wavelet-HLHglcmIdmn" optype="continuous"/><DataField name="wavelet-LLLglcmIdmn" optype="continuous"/><DataField name="wavelet-LLHglszmSmallAreaEmphasis" optype="continuous"/><DataField name="wavelet-HHLglcmInverseVariance" optype="continuous"/><DataField name="wavelet-HLHglrlmRunEntropy" optype="continuous"/><DataField name="wavelet-LHHgldmDependenceEntropy" optype="continuous"/></DataDictionary><NeuralNetwork modelName="koll_veri_r_RBF 9-7-2" functionName="classification"><MiningSchema><MiningField name="Hydrocephaly" usageType="predicted"/><MiningField name="wavelet-LHHglcmIdmn" lowValue="0.917333" highValue="0.986429"/><MiningField name="wavelet-LLLglrlmShortRunEmphasis" lowValue="0.902166" highValue="0.991405"/><MiningField name="wavelet-HHLglcmIdmn" lowValue="0.903094" highValue="0.987538"/><MiningField name="wavelet-HLHglcmIdmn" lowValue="0.868482" highValue="0.991245"/><MiningField name="wavelet-LLLglcmIdmn" lowValue="0.822700" highValue="0.993056"/><MiningField name="wavelet-LLHglszmSmallAreaEmphasis" lowValue="0.701243" highValue="0.948543"/><MiningField name="wavelet-HHLglcmInverseVariance" lowValue="0.371006" highValue="0.563095"/><MiningField name="wavelet-HLHglrlmRunEntropy" lowValue="2.961127" highValue="4.512459"/><MiningField name="wavelet-LHHgldmDependenceEntropy" lowValue="3.057476" highValue="5.343786"/></MiningSchema><NeuralInputs numberOfInputs="9"><NeuralInput id="0"><DerivedField><NormContinuous field="wavelet-LHHglcmIdmn" shift="-1.32762570046891e+001" scale="1.44726662346995e+001"><LinearNorm orig="9.17333184459000e-001" norm="0.000000"/><LinearNorm orig="9.86428953254000e-001" norm="1.000000"/></NormContinuous></DerivedField></NeuralInput><NeuralInput id="1"><DerivedField><NormContinuous field="wavelet-LLLglrlmShortRunEmphasis" shift="-1.01095212207482e+001" scale="1.12058339117391e+001"><LinearNorm orig="9.02165898618000e-001" norm="0.000000"/><LinearNorm orig="9.91405129529000e-001" norm="1.000000"/></NormContinuous></DerivedField></NeuralInput><NeuralInput id="2"><DerivedField><NormContinuous field="wavelet-HHLglcmIdmn" shift="-1.06945069141918e+001" scale="1.18420778869383e+001"><LinearNorm orig="9.03093782721000e-001" norm="0.000000"/><LinearNorm orig="9.87538422382000e-001" norm="1.000000"/></NormContinuous></DerivedField></NeuralInput><NeuralInput id="3"><DerivedField><NormContinuous field="wavelet-HLHglcmIdmn" shift="-7.07443572302649e+000" scale="8.14575109019715e+000"><LinearNorm orig="8.68481696125000e-001" norm="0.000000"/><LinearNorm orig="9.91245083924000e-001" norm="1.000000"/></NormContinuous></DerivedField></NeuralInput><NeuralInput id="4"><DerivedField><NormContinuous field="wavelet-LLLglcmIdmn" shift="-4.82930992696994e+000" scale="5.87007151729343e+000"><LinearNorm orig="8.22700355991000e-001" norm="0.000000"/><LinearNorm orig="9.93056031736000e-001" norm="1.000000"/></NormContinuous></DerivedField></NeuralInput><NeuralInput id="5"><DerivedField><NormContinuous field="wavelet-LLHglszmSmallAreaEmphasis" shift="-2.83560599785252e+000" scale="4.04368255942666e+000"><LinearNorm orig="7.01243472053000e-001" norm="0.000000"/><LinearNorm orig="9.48542805100000e-001" norm="1.000000"/></NormContinuous></DerivedField></NeuralInput><NeuralInput id="6"><DerivedField><NormContinuous field="wavelet-HHLglcmInverseVariance" shift="-1.93142696168136e+000" scale="5.20591680298813e+000"><LinearNorm orig="3.71006113769000e-001" norm="0.000000"/><LinearNorm orig="5.63095238095000e-001" norm="1.000000"/></NormContinuous></DerivedField></NeuralInput><NeuralInput id="7"><DerivedField><NormContinuous field="wavelet-HLHglrlmRunEntropy" shift="-1.90876318508715e+000" scale="6.44607100239137e-001"><LinearNorm orig="2.96112652867000e+000" norm="0.000000"/><LinearNorm orig="4.51245911503000e+000" norm="1.000000"/></NormContinuous></DerivedField></NeuralInput><NeuralInput id="8"><DerivedField><NormContinuous field="wavelet-LHHgldmDependenceEntropy" shift="-1.33729715026055e+000" scale="4.37385973558703e-001"><LinearNorm orig="3.05747607629000e+000" norm="0.000000"/><LinearNorm orig="5.34378624729000e+000" norm="1.000000"/></NormContinuous></DerivedField></NeuralInput></NeuralInputs><NeuralLayer numberOfNeurons="7" activationFunction="radialBasis"><Neuron id="9" width="6.68993931113540e-001"><Con from="0" weight="6.60544373714281e-001"/><Con from="1" weight="8.12344174002336e-001"/><Con from="2" weight="7.57455189610345e-001"/><Con from="3" weight="2.55002117188680e-001"/><Con from="4" weight="7.67483256182836e-001"/><Con from="5" weight="3.29972071847405e-001"/><Con from="6" weight="7.51977048298974e-001"/><Con from="7" weight="3.65961612191812e-001"/><Con from="8" weight="6.13297606136574e-001"/></Neuron><Neuron id="10" width="3.43503734139739e-001"><Con from="0" weight="7.61825095023895e-001"/><Con from="1" weight="8.03748518647966e-001"/><Con from="2" weight="3.81996942487959e-002"/><Con from="3" weight="7.68911672570907e-001"/><Con from="4" weight="7.91047841820763e-001"/><Con from="5" weight="2.12049192065689e-001"/><Con from="6" weight="5.07036386816498e-001"/><Con from="7" weight="2.15396944367710e-002"/><Con from="8" weight="9.33805971123417e-001"/></Neuron><Neuron id="11" width="4.36726118611300e-001"><Con from="0" weight="6.67171901158959e-001"/><Con from="1" weight="6.87296833409169e-001"/><Con from="2" weight="7.59589882620153e-001"/><Con from="3" weight="6.00138735016239e-001"/><Con from="4" weight="8.98600712154393e-001"/><Con from="5" weight="6.42943842767185e-001"/><Con from="6" weight="4.02854862384969e-001"/><Con from="7" weight="6.40881784410143e-001"/><Con from="8" weight="6.01560569263635e-001"/></Neuron><Neuron id="12" width="8.45528995455557e-001"><Con from="0" weight="7.30377007450734e-001"/><Con from="1" weight="7.04804518606032e-001"/><Con from="2" weight="5.83054365352917e-001"/><Con from="3" weight="6.19063705568567e-001"/><Con from="4" weight="7.15601185612848e-001"/><Con from="5" weight="6.01524177660149e-001"/><Con from="6" weight="1.00000000000000e+000"/><Con from="7" weight="1.26776201228046e-001"/><Con from="8" weight="2.98903045906975e-002"/></Neuron><Neuron id="13" width="4.36726118611300e-001"><Con from="0" weight="8.35132213192418e-001"/><Con from="1" weight="6.65904451454377e-001"/><Con from="2" weight="5.54898220397536e-001"/><Con from="3" weight="8.33697436197942e-001"/><Con from="4" weight="9.82447089532397e-001"/><Con from="5" weight="8.64086579462743e-001"/><Con from="6" weight="4.69573229778065e-001"/><Con from="7" weight="6.92380847804059e-001"/><Con from="8" weight="5.50813749644995e-001"/></Neuron><Neuron id="14" width="3.43503734139739e-001"><Con from="0" weight="8.34692261940262e-001"/><Con from="1" weight="9.32202641940806e-001"/><Con from="2" weight="6.14460673742023e-002"/><Con from="3" weight="6.66551612895995e-001"/><Con from="4" weight="6.51969509664310e-001"/><Con from="5" weight="3.80512042788712e-001"/><Con from="6" weight="4.55939490818667e-001"/><Con from="7" weight="1.57743827488461e-001"/><Con from="8" weight="8.06205890040630e-001"/></Neuron><Neuron id="15" width="5.16152396551562e-001"><Con from="0" weight="8.73874468118942e-001"/><Con from="1" weight="8.54969278759162e-001"/><Con from="2" weight="8.26587483388090e-001"/><Con from="3" weight="7.65236727670081e-001"/><Con from="4" weight="7.78050055029588e-001"/><Con from="5" weight="5.33146831758507e-001"/><Con from="6" weight="4.22372096352039e-001"/><Con from="7" weight="4.23896770274764e-001"/><Con from="8" weight="9.01187015560891e-001"/></Neuron></NeuralLayer><NeuralLayer numberOfNeurons="2" activationFunction="identity"><Neuron id="16" bias="4.74105861369975e-001"><Con from="9" weight="6.97789869789799e-004"/><Con from="10" weight="4.88930908151022e-002"/><Con from="11" weight="6.43871730932838e-002"/><Con from="12" weight="7.72456272966539e-005"/><Con from="13" weight="-8.09918503124901e-002"/><Con from="14" weight="3.87232821516817e-001"/><Con from="15" weight="1.24515948998185e-002"/></Neuron><Neuron id="17" bias="1.72967717506028e-001"><Con from="9" weight="1.40336626435820e-003"/><Con from="10" weight="5.78388518451127e-001"/><Con from="11" weight="2.21453768481090e-002"/><Con from="12" weight="-9.84203154316864e-005"/><Con from="13" weight="-1.50668590371663e-002"/><Con from="14" weight="6.64419566529203e-001"/><Con from="15" weight="1.47912890094017e-003"/></Neuron></NeuralLayer><NeuralOutputs numberOfOutputs="2"><NeuralOutput outputNeuron="16"><DerivedField optype="categorical"><NormDiscrete field="Hydrocephaly" value="0"/></DerivedField></NeuralOutput><NeuralOutput outputNeuron="17"><DerivedField optype="categorical"><NormDiscrete field="Hydrocephaly" value="1"/></DerivedField></NeuralOutput></NeuralOutputs></NeuralNetwork></PMML>
