<?xml version="1.0" encoding="UTF-8"?>
<PMML version="3.0"><Header copyright="Copyright 1984-2017 TIBCO Software Inc. All rights reserved."><Application name="STATISTICA Automated Neural Networks (SANN)" version="2.0"/></Header><DataDictionary numberOfFields="10"><DataField name="Hydrocephaly" optype="categorical"><Value value="0"/><Value value="1"/></DataField><DataField name="wavelet-LHHglcmIdmn" optype="continuous"/><DataField name="wavelet-LLLglrlmShortRunEmphasis" optype="continuous"/><DataField name="wavelet-HHLglcmIdmn" optype="continuous"/><DataField name="wavelet-HLHglcmIdmn" optype="continuous"/><DataField name="wavelet-LLLglcmIdmn" optype="continuous"/><DataField name="wavelet-LLHglszmSmallAreaEmphasis" optype="continuous"/><DataField name="wavelet-HHLglcmInverseVariance" optype="continuous"/><DataField name="wavelet-HLHglrlmRunEntropy" optype="continuous"/><DataField name="wavelet-LHHgldmDependenceEntropy" optype="continuous"/></DataDictionary><NeuralNetwork modelName="koll_veri_r_RBF 9-10-2" functionName="classification"><MiningSchema><MiningField name="Hydrocephaly" usageType="predicted"/><MiningField name="wavelet-LHHglcmIdmn" lowValue="0.917333" highValue="0.986429"/><MiningField name="wavelet-LLLglrlmShortRunEmphasis" lowValue="0.902166" highValue="0.991405"/><MiningField name="wavelet-HHLglcmIdmn" lowValue="0.903094" highValue="0.987538"/><MiningField name="wavelet-HLHglcmIdmn" lowValue="0.868482" highValue="0.991245"/><MiningField name="wavelet-LLLglcmIdmn" lowValue="0.822700" highValue="0.993056"/><MiningField name="wavelet-LLHglszmSmallAreaEmphasis" lowValue="0.701243" highValue="0.948543"/><MiningField name="wavelet-HHLglcmInverseVariance" lowValue="0.371006" highValue="0.563095"/><MiningField name="wavelet-HLHglrlmRunEntropy" lowValue="2.961127" highValue="4.512459"/><MiningField name="wavelet-LHHgldmDependenceEntropy" lowValue="3.057476" highValue="5.343786"/></MiningSchema><NeuralInputs numberOfInputs="9"><NeuralInput id="0"><DerivedField><NormContinuous field="wavelet-LHHglcmIdmn" shift="-1.32762570046891e+001" scale="1.44726662346995e+001"><LinearNorm orig="9.17333184459000e-001" norm="0.000000"/><LinearNorm orig="9.86428953254000e-001" norm="1.000000"/></NormContinuous></DerivedField></NeuralInput><NeuralInput id="1"><DerivedField><NormContinuous field="wavelet-LLLglrlmShortRunEmphasis" shift="-1.01095212207482e+001" scale="1.12058339117391e+001"><LinearNorm orig="9.02165898618000e-001" norm="0.000000"/><LinearNorm orig="9.91405129529000e-001" norm="1.000000"/></NormContinuous></DerivedField></NeuralInput><NeuralInput id="2"><DerivedField><NormContinuous field="wavelet-HHLglcmIdmn" shift="-1.06945069141918e+001" scale="1.18420778869383e+001"><LinearNorm orig="9.03093782721000e-001" norm="0.000000"/><LinearNorm orig="9.87538422382000e-001" norm="1.000000"/></NormContinuous></DerivedField></NeuralInput><NeuralInput id="3"><DerivedField><NormContinuous field="wavelet-HLHglcmIdmn" shift="-7.07443572302649e+000" scale="8.14575109019715e+000"><LinearNorm orig="8.68481696125000e-001" norm="0.000000"/><LinearNorm orig="9.91245083924000e-001" norm="1.000000"/></NormContinuous></DerivedField></NeuralInput><NeuralInput id="4"><DerivedField><NormContinuous field="wavelet-LLLglcmIdmn" shift="-4.82930992696994e+000" scale="5.87007151729343e+000"><LinearNorm orig="8.22700355991000e-001" norm="0.000000"/><LinearNorm orig="9.93056031736000e-001" norm="1.000000"/></NormContinuous></DerivedField></NeuralInput><NeuralInput id="5"><DerivedField><NormContinuous field="wavelet-LLHglszmSmallAreaEmphasis" shift="-2.83560599785252e+000" scale="4.04368255942666e+000"><LinearNorm orig="7.01243472053000e-001" norm="0.000000"/><LinearNorm orig="9.48542805100000e-001" norm="1.000000"/></NormContinuous></DerivedField></NeuralInput><NeuralInput id="6"><DerivedField><NormContinuous field="wavelet-HHLglcmInverseVariance" shift="-1.93142696168136e+000" scale="5.20591680298813e+000"><LinearNorm orig="3.71006113769000e-001" norm="0.000000"/><LinearNorm orig="5.63095238095000e-001" norm="1.000000"/></NormContinuous></DerivedField></NeuralInput><NeuralInput id="7"><DerivedField><NormContinuous field="wavelet-HLHglrlmRunEntropy" shift="-1.90876318508715e+000" scale="6.44607100239137e-001"><LinearNorm orig="2.96112652867000e+000" norm="0.000000"/><LinearNorm orig="4.51245911503000e+000" norm="1.000000"/></NormContinuous></DerivedField></NeuralInput><NeuralInput id="8"><DerivedField><NormContinuous field="wavelet-LHHgldmDependenceEntropy" shift="-1.33729715026055e+000" scale="4.37385973558703e-001"><LinearNorm orig="3.05747607629000e+000" norm="0.000000"/><LinearNorm orig="5.34378624729000e+000" norm="1.000000"/></NormContinuous></DerivedField></NeuralInput></NeuralInputs><NeuralLayer numberOfNeurons="10" activationFunction="radialBasis"><Neuron id="9" width="6.41849837449991e-001"><Con from="0" weight="2.57612987501602e-001"/><Con from="1" weight="9.12687681511164e-001"/><Con from="2" weight="4.43039439035923e-001"/><Con from="3" weight="6.62549507921470e-001"/><Con from="4" weight="7.78672917294294e-001"/><Con from="5" weight="9.32370932521596e-001"/><Con from="6" weight="8.56987922083616e-001"/><Con from="7" weight="5.59015170128550e-001"/><Con from="8" weight="1.39949372945339e-001"/></Neuron><Neuron id="10" width="5.92080559391845e-001"><Con from="0" weight="8.34692261940262e-001"/><Con from="1" weight="9.32202641940806e-001"/><Con from="2" weight="6.14460673742023e-002"/><Con from="3" weight="6.66551612895995e-001"/><Con from="4" weight="6.51969509664310e-001"/><Con from="5" weight="3.80512042788712e-001"/><Con from="6" weight="4.55939490818667e-001"/><Con from="7" weight="1.57743827488461e-001"/><Con from="8" weight="8.06205890040630e-001"/></Neuron><Neuron id="11" width="7.36064651333458e-001"><Con from="0" weight="5.88912124325978e-001"/><Con from="1" weight="1.00000000000000e+000"/><Con from="2" weight="0.00000000000000e+000"/><Con from="3" weight="2.86021476341874e-001"/><Con from="4" weight="7.50334225848366e-001"/><Con from="5" weight="7.03218958560429e-001"/><Con from="6" weight="5.91001562542050e-001"/><Con from="7" weight="5.87569635611635e-001"/><Con from="8" weight="6.99432065103646e-001"/></Neuron><Neuron id="12" width="6.68993931113540e-001"><Con from="0" weight="6.67171901158959e-001"/><Con from="1" weight="6.87296833409169e-001"/><Con from="2" weight="7.59589882620153e-001"/><Con from="3" weight="6.00138735016239e-001"/><Con from="4" weight="8.98600712154393e-001"/><Con from="5" weight="6.42943842767185e-001"/><Con from="6" weight="4.02854862384969e-001"/><Con from="7" weight="6.40881784410143e-001"/><Con from="8" weight="6.01560569263635e-001"/></Neuron><Neuron id="13" width="5.92080559391845e-001"><Con from="0" weight="6.72793302451307e-001"/><Con from="1" weight="6.81783173654630e-001"/><Con from="2" weight="4.36324225763940e-002"/><Con from="3" weight="8.82909777176114e-001"/><Con from="4" weight="8.78305558442138e-001"/><Con from="5" weight="6.49242060913631e-002"/><Con from="6" weight="4.95094930276214e-001"/><Con from="7" weight="0.00000000000000e+000"/><Con from="8" weight="6.13151309053071e-001"/></Neuron><Neuron id="14" width="6.13552058704063e-001"><Con from="0" weight="8.68411062912177e-001"/><Con from="1" weight="3.15798456534280e-001"/><Con from="2" weight="1.40486000847712e-001"/><Con from="3" weight="7.75511215232001e-001"/><Con from="4" weight="1.00000000000000e+000"/><Con from="5" weight="1.36200505743372e-001"/><Con from="6" weight="2.82205066128581e-001"/><Con from="7" weight="3.42671646121561e-001"/><Con from="8" weight="5.86995213695351e-001"/></Neuron><Neuron id="15" width="6.68993931113540e-001"><Con from="0" weight="6.60544373714281e-001"/><Con from="1" weight="8.12344174002336e-001"/><Con from="2" weight="7.57455189610345e-001"/><Con from="3" weight="2.55002117188680e-001"/><Con from="4" weight="7.67483256182836e-001"/><Con from="5" weight="3.29972071847405e-001"/><Con from="6" weight="7.51977048298974e-001"/><Con from="7" weight="3.65961612191812e-001"/><Con from="8" weight="6.13297606136574e-001"/></Neuron><Neuron id="16" width="6.41849837449991e-001"><Con from="0" weight="6.13543791455253e-002"/><Con from="1" weight="7.02357592531358e-001"/><Con from="2" weight="3.76621161055036e-001"/><Con from="3" weight="4.89239277946100e-001"/><Con from="4" weight="6.84976449640979e-001"/><Con from="5" weight="8.03708305631482e-001"/><Con from="6" weight="5.85132738016166e-001"/><Con from="7" weight="1.39559528868014e-001"/><Con from="8" weight="0.00000000000000e+000"/></Neuron><Neuron id="17" width="7.88544933527131e-001"><Con from="0" weight="7.39401925805000e-001"/><Con from="1" weight="4.29496548969871e-001"/><Con from="2" weight="6.94063985769695e-002"/><Con from="3" weight="7.27529910955483e-001"/><Con from="4" weight="8.97339038347166e-001"/><Con from="5" weight="4.31652848690507e-001"/><Con from="6" weight="4.38442214433066e-001"/><Con from="7" weight="1.00000000000000e+000"/><Con from="8" weight="4.12192434059727e-001"/></Neuron><Neuron id="18" width="8.09263039757458e-001"><Con from="0" weight="7.91404206880422e-001"/><Con from="1" weight="8.82674317269252e-001"/><Con from="2" weight="1.00000000000000e+000"/><Con from="3" weight="9.99999999999999e-001"/><Con from="4" weight="8.64676311011160e-001"/><Con from="5" weight="3.07726637182385e-001"/><Con from="6" weight="2.29841478120707e-001"/><Con from="7" weight="3.55565234334603e-001"/><Con from="8" weight="1.00000000000000e+000"/></Neuron></NeuralLayer><NeuralLayer numberOfNeurons="2" normalizationMethod="softmax"><Neuron id="19" bias="4.34516157883776e-001"><Con from="9" weight="-3.38930411451119e-005"/><Con from="10" weight="-1.31278095795986e-003"/><Con from="11" weight="3.95519114905241e-004"/><Con from="12" weight="2.19460863588963e-006"/><Con from="13" weight="-2.10007084505928e-004"/><Con from="14" weight="2.18129489146391e-003"/><Con from="15" weight="2.14017225776397e-003"/><Con from="16" weight="-2.21099723108066e-003"/><Con from="17" weight="3.36018808729943e-004"/><Con from="18" weight="-3.80689664382352e-004"/></Neuron><Neuron id="20" bias="-6.61649191399062e-001"><Con from="9" weight="-7.29573144898601e-004"/><Con from="10" weight="-1.89515296505919e-003"/><Con from="11" weight="1.38614694981882e-004"/><Con from="12" weight="-1.49743453968743e-003"/><Con from="13" weight="-4.61280219445170e-003"/><Con from="14" weight="1.75147974431522e-003"/><Con from="15" weight="1.04095275871291e-003"/><Con from="16" weight="-3.53636474904721e-004"/><Con from="17" weight="1.88806301582110e-004"/><Con from="18" weight="2.41237464567297e-004"/></Neuron></NeuralLayer><NeuralOutputs numberOfOutputs="2"><NeuralOutput outputNeuron="19"><DerivedField optype="categorical"><NormDiscrete field="Hydrocephaly" value="0"/></DerivedField></NeuralOutput><NeuralOutput outputNeuron="20"><DerivedField optype="categorical"><NormDiscrete field="Hydrocephaly" value="1"/></DerivedField></NeuralOutput></NeuralOutputs></NeuralNetwork></PMML>
