<?xml version="1.0" encoding="UTF-8"?>
<PMML version="3.0"><Header copyright="Copyright 1984-2017 TIBCO Software Inc. All rights reserved."><Application name="STATISTICA Automated Neural Networks (SANN)" version="2.0"/></Header><DataDictionary numberOfFields="10"><DataField name="Hydrocephaly" optype="categorical"><Value value="0"/><Value value="1"/></DataField><DataField name="wavelet-LHHglcmIdmn" optype="continuous"/><DataField name="wavelet-LLLglrlmShortRunEmphasis" optype="continuous"/><DataField name="wavelet-HHLglcmIdmn" optype="continuous"/><DataField name="wavelet-HLHglcmIdmn" optype="continuous"/><DataField name="wavelet-LLLglcmIdmn" optype="continuous"/><DataField name="wavelet-LLHglszmSmallAreaEmphasis" optype="continuous"/><DataField name="wavelet-HHLglcmInverseVariance" optype="continuous"/><DataField name="wavelet-HLHglrlmRunEntropy" optype="continuous"/><DataField name="wavelet-LHHgldmDependenceEntropy" optype="continuous"/></DataDictionary><NeuralNetwork modelName="koll_veri_r_MLP 9-8-2" functionName="classification"><MiningSchema><MiningField name="Hydrocephaly" usageType="predicted"/><MiningField name="wavelet-LHHglcmIdmn" lowValue="0.917333" highValue="0.986429"/><MiningField name="wavelet-LLLglrlmShortRunEmphasis" lowValue="0.902166" highValue="0.991405"/><MiningField name="wavelet-HHLglcmIdmn" lowValue="0.903094" highValue="0.987538"/><MiningField name="wavelet-HLHglcmIdmn" lowValue="0.868482" highValue="0.991245"/><MiningField name="wavelet-LLLglcmIdmn" lowValue="0.822700" highValue="0.993056"/><MiningField name="wavelet-LLHglszmSmallAreaEmphasis" lowValue="0.701243" highValue="0.948543"/><MiningField name="wavelet-HHLglcmInverseVariance" lowValue="0.371006" highValue="0.563095"/><MiningField name="wavelet-HLHglrlmRunEntropy" lowValue="2.961127" highValue="4.512459"/><MiningField name="wavelet-LHHgldmDependenceEntropy" lowValue="3.057476" highValue="5.343786"/></MiningSchema><NeuralInputs numberOfInputs="9"><NeuralInput id="0"><DerivedField><NormContinuous field="wavelet-LHHglcmIdmn" shift="-1.32762570046891e+001" scale="1.44726662346995e+001"><LinearNorm orig="9.17333184459000e-001" norm="0.000000"/><LinearNorm orig="9.86428953254000e-001" norm="1.000000"/></NormContinuous></DerivedField></NeuralInput><NeuralInput id="1"><DerivedField><NormContinuous field="wavelet-LLLglrlmShortRunEmphasis" shift="-1.01095212207482e+001" scale="1.12058339117391e+001"><LinearNorm orig="9.02165898618000e-001" norm="0.000000"/><LinearNorm orig="9.91405129529000e-001" norm="1.000000"/></NormContinuous></DerivedField></NeuralInput><NeuralInput id="2"><DerivedField><NormContinuous field="wavelet-HHLglcmIdmn" shift="-1.06945069141918e+001" scale="1.18420778869383e+001"><LinearNorm orig="9.03093782721000e-001" norm="0.000000"/><LinearNorm orig="9.87538422382000e-001" norm="1.000000"/></NormContinuous></DerivedField></NeuralInput><NeuralInput id="3"><DerivedField><NormContinuous field="wavelet-HLHglcmIdmn" shift="-7.07443572302649e+000" scale="8.14575109019715e+000"><LinearNorm orig="8.68481696125000e-001" norm="0.000000"/><LinearNorm orig="9.91245083924000e-001" norm="1.000000"/></NormContinuous></DerivedField></NeuralInput><NeuralInput id="4"><DerivedField><NormContinuous field="wavelet-LLLglcmIdmn" shift="-4.82930992696994e+000" scale="5.87007151729343e+000"><LinearNorm orig="8.22700355991000e-001" norm="0.000000"/><LinearNorm orig="9.93056031736000e-001" norm="1.000000"/></NormContinuous></DerivedField></NeuralInput><NeuralInput id="5"><DerivedField><NormContinuous field="wavelet-LLHglszmSmallAreaEmphasis" shift="-2.83560599785252e+000" scale="4.04368255942666e+000"><LinearNorm orig="7.01243472053000e-001" norm="0.000000"/><LinearNorm orig="9.48542805100000e-001" norm="1.000000"/></NormContinuous></DerivedField></NeuralInput><NeuralInput id="6"><DerivedField><NormContinuous field="wavelet-HHLglcmInverseVariance" shift="-1.93142696168136e+000" scale="5.20591680298813e+000"><LinearNorm orig="3.71006113769000e-001" norm="0.000000"/><LinearNorm orig="5.63095238095000e-001" norm="1.000000"/></NormContinuous></DerivedField></NeuralInput><NeuralInput id="7"><DerivedField><NormContinuous field="wavelet-HLHglrlmRunEntropy" shift="-1.90876318508715e+000" scale="6.44607100239137e-001"><LinearNorm orig="2.96112652867000e+000" norm="0.000000"/><LinearNorm orig="4.51245911503000e+000" norm="1.000000"/></NormContinuous></DerivedField></NeuralInput><NeuralInput id="8"><DerivedField><NormContinuous field="wavelet-LHHgldmDependenceEntropy" shift="-1.33729715026055e+000" scale="4.37385973558703e-001"><LinearNorm orig="3.05747607629000e+000" norm="0.000000"/><LinearNorm orig="5.34378624729000e+000" norm="1.000000"/></NormContinuous></DerivedField></NeuralInput></NeuralInputs><NeuralLayer numberOfNeurons="8" activationFunction="tanh"><Neuron id="9" bias="-4.10987306793989e-002"><Con from="0" weight="5.91448958231434e-002"/><Con from="1" weight="-1.94796839592582e-002"/><Con from="2" weight="-5.80072427971896e-002"/><Con from="3" weight="-3.04731191168182e-003"/><Con from="4" weight="-9.44513521997087e-002"/><Con from="5" weight="-2.43099355543089e-002"/><Con from="6" weight="-4.23420983884171e-002"/><Con from="7" weight="-2.94179140601834e-002"/><Con from="8" weight="-2.19039001935679e-002"/></Neuron><Neuron id="10" bias="-1.47689962813701e-002"><Con from="0" weight="-3.02528229793423e-003"/><Con from="1" weight="-5.85285146368649e-002"/><Con from="2" weight="1.65032679485475e-002"/><Con from="3" weight="-6.51027711357014e-002"/><Con from="4" weight="3.65400841877451e-002"/><Con from="5" weight="1.15752401994263e-003"/><Con from="6" weight="-2.67882482098548e-002"/><Con from="7" weight="3.43905337493136e-002"/><Con from="8" weight="-3.12424427848978e-002"/></Neuron><Neuron id="11" bias="-2.10815123313671e-002"><Con from="0" weight="4.86207820877426e-003"/><Con from="1" weight="1.20451582995799e-002"/><Con from="2" weight="-7.23297784185175e-002"/><Con from="3" weight="-7.13549816845890e-003"/><Con from="4" weight="3.28251286257653e-002"/><Con from="5" weight="1.69741141304573e-002"/><Con from="6" weight="-4.61642371152894e-002"/><Con from="7" weight="2.73452718009038e-002"/><Con from="8" weight="-4.79621412147263e-002"/></Neuron><Neuron id="12" bias="-2.13893638900333e-003"><Con from="0" weight="5.11582263158118e-002"/><Con from="1" weight="7.86203177839072e-002"/><Con from="2" weight="1.24960154083349e-002"/><Con from="3" weight="-1.53475967576875e-002"/><Con from="4" weight="1.66481501021327e-002"/><Con from="5" weight="-2.18872339868992e-002"/><Con from="6" weight="-3.77657177984665e-003"/><Con from="7" weight="3.24333800958234e-002"/><Con from="8" weight="3.41273619595852e-002"/></Neuron><Neuron id="13" bias="1.31740389787671e-002"><Con from="0" weight="-5.15638238267453e-003"/><Con from="1" weight="-4.13852724109640e-003"/><Con from="2" weight="-2.19150183129142e-002"/><Con from="3" weight="-4.71495296709194e-002"/><Con from="4" weight="4.75810745567500e-002"/><Con from="5" weight="4.51247214503041e-002"/><Con from="6" weight="-4.02815874072127e-002"/><Con from="7" weight="4.02845088781697e-003"/><Con from="8" weight="-1.35155089092395e-002"/></Neuron><Neuron id="14" bias="-2.78040285348370e-002"><Con from="0" weight="2.08578188643737e-002"/><Con from="1" weight="-4.57489463970324e-002"/><Con from="2" weight="-5.00794112602005e-002"/><Con from="3" weight="-2.31376902416379e-002"/><Con from="4" weight="-9.34801943691497e-002"/><Con from="5" weight="-9.56210811724290e-002"/><Con from="6" weight="3.00148664315758e-002"/><Con from="7" weight="-6.78801991077318e-002"/><Con from="8" weight="3.75573669143669e-003"/></Neuron><Neuron id="15" bias="1.87022024831755e-002"><Con from="0" weight="-3.64505868620786e-002"/><Con from="1" weight="1.53657611518386e-003"/><Con from="2" weight="1.78820224915830e-002"/><Con from="3" weight="3.03517629117450e-003"/><Con from="4" weight="1.10079897271590e-002"/><Con from="5" weight="-7.18515381529782e-002"/><Con from="6" weight="-1.53210762266385e-002"/><Con from="7" weight="2.19283684561895e-002"/><Con from="8" weight="2.35384562663136e-002"/></Neuron><Neuron id="16" bias="1.10626867237800e-001"><Con from="0" weight="3.49610854809036e-002"/><Con from="1" weight="5.71557545933131e-002"/><Con from="2" weight="-7.09979031623446e-003"/><Con from="3" weight="-4.31040555934346e-002"/><Con from="4" weight="1.17703177915897e-002"/><Con from="5" weight="3.68919523285762e-002"/><Con from="6" weight="3.03061628538987e-002"/><Con from="7" weight="-1.86115522134611e-002"/><Con from="8" weight="-2.44738157141547e-003"/></Neuron></NeuralLayer><NeuralLayer numberOfNeurons="2" normalizationMethod="softmax"><Neuron id="17" bias="5.30096643861671e-001"><Con from="9" weight="-7.59384036365656e-002"/><Con from="10" weight="6.07324620236173e-004"/><Con from="11" weight="-2.41677729950401e-002"/><Con from="12" weight="5.61935468724202e-003"/><Con from="13" weight="2.71493388882322e-002"/><Con from="14" weight="-1.43016442625670e-002"/><Con from="15" weight="8.03719042103582e-004"/><Con from="16" weight="1.19806190050864e-001"/></Neuron><Neuron id="18" bias="-4.88206575414725e-001"><Con from="9" weight="2.45053978230258e-002"/><Con from="10" weight="1.95186206771146e-002"/><Con from="11" weight="-1.33775776917530e-002"/><Con from="12" weight="-3.96246493231674e-002"/><Con from="13" weight="-2.00543579423352e-002"/><Con from="14" weight="1.16435553703025e-001"/><Con from="15" weight="3.87746459206012e-002"/><Con from="16" weight="-4.83293738359005e-002"/></Neuron></NeuralLayer><NeuralOutputs numberOfOutputs="2"><NeuralOutput outputNeuron="17"><DerivedField optype="categorical"><NormDiscrete field="Hydrocephaly" value="0"/></DerivedField></NeuralOutput><NeuralOutput outputNeuron="18"><DerivedField optype="categorical"><NormDiscrete field="Hydrocephaly" value="1"/></DerivedField></NeuralOutput></NeuralOutputs></NeuralNetwork></PMML>
