<?xml version="1.0" encoding="UTF-8"?>
<PMML version="3.0"><Header copyright="Copyright 1984-2017 TIBCO Software Inc. All rights reserved."><Application name="STATISTICA Automated Neural Networks (SANN)" version="2.0"/></Header><DataDictionary numberOfFields="10"><DataField name="Hydrocephaly" optype="categorical"><Value value="0"/><Value value="1"/></DataField><DataField name="wavelet-LHHglcmIdmn" optype="continuous"/><DataField name="wavelet-LLLglrlmShortRunEmphasis" optype="continuous"/><DataField name="wavelet-HHLglcmIdmn" optype="continuous"/><DataField name="wavelet-HLHglcmIdmn" optype="continuous"/><DataField name="wavelet-LLLglcmIdmn" optype="continuous"/><DataField name="wavelet-LLHglszmSmallAreaEmphasis" optype="continuous"/><DataField name="wavelet-HHLglcmInverseVariance" optype="continuous"/><DataField name="wavelet-HLHglrlmRunEntropy" optype="continuous"/><DataField name="wavelet-LHHgldmDependenceEntropy" optype="continuous"/></DataDictionary><NeuralNetwork modelName="koll_veri_r_RBF 9-6-2" functionName="classification"><MiningSchema><MiningField name="Hydrocephaly" usageType="predicted"/><MiningField name="wavelet-LHHglcmIdmn" lowValue="0.917333" highValue="0.986429"/><MiningField name="wavelet-LLLglrlmShortRunEmphasis" lowValue="0.902166" highValue="0.991405"/><MiningField name="wavelet-HHLglcmIdmn" lowValue="0.903094" highValue="0.987538"/><MiningField name="wavelet-HLHglcmIdmn" lowValue="0.868482" highValue="0.991245"/><MiningField name="wavelet-LLLglcmIdmn" lowValue="0.822700" highValue="0.993056"/><MiningField name="wavelet-LLHglszmSmallAreaEmphasis" lowValue="0.701243" highValue="0.948543"/><MiningField name="wavelet-HHLglcmInverseVariance" lowValue="0.371006" highValue="0.563095"/><MiningField name="wavelet-HLHglrlmRunEntropy" lowValue="2.961127" highValue="4.512459"/><MiningField name="wavelet-LHHgldmDependenceEntropy" lowValue="3.057476" highValue="5.343786"/></MiningSchema><NeuralInputs numberOfInputs="9"><NeuralInput id="0"><DerivedField><NormContinuous field="wavelet-LHHglcmIdmn" shift="-1.32762570046891e+001" scale="1.44726662346995e+001"><LinearNorm orig="9.17333184459000e-001" norm="0.000000"/><LinearNorm orig="9.86428953254000e-001" norm="1.000000"/></NormContinuous></DerivedField></NeuralInput><NeuralInput id="1"><DerivedField><NormContinuous field="wavelet-LLLglrlmShortRunEmphasis" shift="-1.01095212207482e+001" scale="1.12058339117391e+001"><LinearNorm orig="9.02165898618000e-001" norm="0.000000"/><LinearNorm orig="9.91405129529000e-001" norm="1.000000"/></NormContinuous></DerivedField></NeuralInput><NeuralInput id="2"><DerivedField><NormContinuous field="wavelet-HHLglcmIdmn" shift="-1.06945069141918e+001" scale="1.18420778869383e+001"><LinearNorm orig="9.03093782721000e-001" norm="0.000000"/><LinearNorm orig="9.87538422382000e-001" norm="1.000000"/></NormContinuous></DerivedField></NeuralInput><NeuralInput id="3"><DerivedField><NormContinuous field="wavelet-HLHglcmIdmn" shift="-7.07443572302649e+000" scale="8.14575109019715e+000"><LinearNorm orig="8.68481696125000e-001" norm="0.000000"/><LinearNorm orig="9.91245083924000e-001" norm="1.000000"/></NormContinuous></DerivedField></NeuralInput><NeuralInput id="4"><DerivedField><NormContinuous field="wavelet-LLLglcmIdmn" shift="-4.82930992696994e+000" scale="5.87007151729343e+000"><LinearNorm orig="8.22700355991000e-001" norm="0.000000"/><LinearNorm orig="9.93056031736000e-001" norm="1.000000"/></NormContinuous></DerivedField></NeuralInput><NeuralInput id="5"><DerivedField><NormContinuous field="wavelet-LLHglszmSmallAreaEmphasis" shift="-2.83560599785252e+000" scale="4.04368255942666e+000"><LinearNorm orig="7.01243472053000e-001" norm="0.000000"/><LinearNorm orig="9.48542805100000e-001" norm="1.000000"/></NormContinuous></DerivedField></NeuralInput><NeuralInput id="6"><DerivedField><NormContinuous field="wavelet-HHLglcmInverseVariance" shift="-1.93142696168136e+000" scale="5.20591680298813e+000"><LinearNorm orig="3.71006113769000e-001" norm="0.000000"/><LinearNorm orig="5.63095238095000e-001" norm="1.000000"/></NormContinuous></DerivedField></NeuralInput><NeuralInput id="7"><DerivedField><NormContinuous field="wavelet-HLHglrlmRunEntropy" shift="-1.90876318508715e+000" scale="6.44607100239137e-001"><LinearNorm orig="2.96112652867000e+000" norm="0.000000"/><LinearNorm orig="4.51245911503000e+000" norm="1.000000"/></NormContinuous></DerivedField></NeuralInput><NeuralInput id="8"><DerivedField><NormContinuous field="wavelet-LHHgldmDependenceEntropy" shift="-1.33729715026055e+000" scale="4.37385973558703e-001"><LinearNorm orig="3.05747607629000e+000" norm="0.000000"/><LinearNorm orig="5.34378624729000e+000" norm="1.000000"/></NormContinuous></DerivedField></NeuralInput></NeuralInputs><NeuralLayer numberOfNeurons="6" activationFunction="radialBasis"><Neuron id="9" width="1.13339106259515e+000"><Con from="0" weight="3.48552925352829e-001"/><Con from="1" weight="7.30647934393648e-001"/><Con from="2" weight="9.69640143041737e-002"/><Con from="3" weight="0.00000000000000e+000"/><Con from="4" weight="7.98715995331277e-001"/><Con from="5" weight="9.25894328580674e-002"/><Con from="6" weight="3.77868953485439e-001"/><Con from="7" weight="4.36648524362787e-001"/><Con from="8" weight="4.38049300148960e-001"/></Neuron><Neuron id="10" width="4.36726118611300e-001"><Con from="0" weight="6.67171901158959e-001"/><Con from="1" weight="6.87296833409169e-001"/><Con from="2" weight="7.59589882620153e-001"/><Con from="3" weight="6.00138735016239e-001"/><Con from="4" weight="8.98600712154393e-001"/><Con from="5" weight="6.42943842767185e-001"/><Con from="6" weight="4.02854862384969e-001"/><Con from="7" weight="6.40881784410143e-001"/><Con from="8" weight="6.01560569263635e-001"/></Neuron><Neuron id="11" width="7.10327375763750e-001"><Con from="0" weight="7.86899977888870e-001"/><Con from="1" weight="0.00000000000000e+000"/><Con from="2" weight="1.24340654091863e-002"/><Con from="3" weight="6.47848939312571e-001"/><Con from="4" weight="7.88434270778573e-001"/><Con from="5" weight="5.56594371444747e-001"/><Con from="6" weight="5.63670755134702e-001"/><Con from="7" weight="5.97036725485935e-002"/><Con from="8" weight="3.25254391933508e-001"/></Neuron><Neuron id="12" width="4.36726118611300e-001"><Con from="0" weight="8.35132213192418e-001"/><Con from="1" weight="6.65904451454377e-001"/><Con from="2" weight="5.54898220397536e-001"/><Con from="3" weight="8.33697436197942e-001"/><Con from="4" weight="9.82447089532397e-001"/><Con from="5" weight="8.64086579462743e-001"/><Con from="6" weight="4.69573229778065e-001"/><Con from="7" weight="6.92380847804059e-001"/><Con from="8" weight="5.50813749644995e-001"/></Neuron><Neuron id="13" width="5.90808992418011e-001"><Con from="0" weight="7.76989394144854e-001"/><Con from="1" weight="7.04652924897056e-001"/><Con from="2" weight="7.89602827540925e-001"/><Con from="3" weight="8.92062418123427e-001"/><Con from="4" weight="9.07237026662647e-001"/><Con from="5" weight="3.47296357490285e-001"/><Con from="6" weight="3.88597742328801e-001"/><Con from="7" weight="2.53699445999175e-001"/><Con from="8" weight="4.87637410536630e-001"/></Neuron><Neuron id="14" width="7.10327375763750e-001"><Con from="0" weight="8.29681609435227e-001"/><Con from="1" weight="2.23317720688060e-001"/><Con from="2" weight="1.38482396442754e-001"/><Con from="3" weight="6.38392379585653e-001"/><Con from="4" weight="8.58872860385424e-001"/><Con from="5" weight="1.00000000000000e+000"/><Con from="6" weight="2.86609106502904e-001"/><Con from="7" weight="4.22694218309825e-001"/><Con from="8" weight="4.88933530235343e-001"/></Neuron></NeuralLayer><NeuralLayer numberOfNeurons="2" normalizationMethod="softmax"><Neuron id="15" bias="6.88365676568934e-001"><Con from="9" weight="1.77206451954984e-005"/><Con from="10" weight="5.45764593178961e-002"/><Con from="11" weight="2.01384419823552e-004"/><Con from="12" weight="7.58485458579759e-002"/><Con from="13" weight="3.95459454988163e-003"/><Con from="14" weight="1.64105256625485e-003"/></Neuron><Neuron id="16" bias="-3.90109637121675e-001"><Con from="9" weight="-1.74423611711628e-005"/><Con from="10" weight="2.47665859449671e-003"/><Con from="11" weight="1.14158339821341e-003"/><Con from="12" weight="2.82053471780015e-002"/><Con from="13" weight="2.66289014536336e-003"/><Con from="14" weight="3.08889844004534e-004"/></Neuron></NeuralLayer><NeuralOutputs numberOfOutputs="2"><NeuralOutput outputNeuron="15"><DerivedField optype="categorical"><NormDiscrete field="Hydrocephaly" value="0"/></DerivedField></NeuralOutput><NeuralOutput outputNeuron="16"><DerivedField optype="categorical"><NormDiscrete field="Hydrocephaly" value="1"/></DerivedField></NeuralOutput></NeuralOutputs></NeuralNetwork></PMML>
