<?xml version="1.0" encoding="UTF-8"?>
<PMML version="3.0"><Header copyright="Copyright 1984-2017 TIBCO Software Inc. All rights reserved."><Application name="STATISTICA Automated Neural Networks (SANN)" version="2.0"/></Header><DataDictionary numberOfFields="10"><DataField name="Hydrocephaly" optype="categorical"><Value value="0"/><Value value="1"/></DataField><DataField name="wavelet-LHHglcmIdmn" optype="continuous"/><DataField name="wavelet-LLLglrlmShortRunEmphasis" optype="continuous"/><DataField name="wavelet-HHLglcmIdmn" optype="continuous"/><DataField name="wavelet-HLHglcmIdmn" optype="continuous"/><DataField name="wavelet-LLLglcmIdmn" optype="continuous"/><DataField name="wavelet-LLHglszmSmallAreaEmphasis" optype="continuous"/><DataField name="wavelet-HHLglcmInverseVariance" optype="continuous"/><DataField name="wavelet-HLHglrlmRunEntropy" optype="continuous"/><DataField name="wavelet-LHHgldmDependenceEntropy" optype="continuous"/></DataDictionary><NeuralNetwork modelName="koll_veri_r_RBF 9-6-2" functionName="classification"><MiningSchema><MiningField name="Hydrocephaly" usageType="predicted"/><MiningField name="wavelet-LHHglcmIdmn" lowValue="0.917333" highValue="0.986429"/><MiningField name="wavelet-LLLglrlmShortRunEmphasis" lowValue="0.902166" highValue="0.991405"/><MiningField name="wavelet-HHLglcmIdmn" lowValue="0.903094" highValue="0.987538"/><MiningField name="wavelet-HLHglcmIdmn" lowValue="0.868482" highValue="0.991245"/><MiningField name="wavelet-LLLglcmIdmn" lowValue="0.822700" highValue="0.993056"/><MiningField name="wavelet-LLHglszmSmallAreaEmphasis" lowValue="0.701243" highValue="0.948543"/><MiningField name="wavelet-HHLglcmInverseVariance" lowValue="0.371006" highValue="0.563095"/><MiningField name="wavelet-HLHglrlmRunEntropy" lowValue="2.961127" highValue="4.512459"/><MiningField name="wavelet-LHHgldmDependenceEntropy" lowValue="3.057476" highValue="5.343786"/></MiningSchema><NeuralInputs numberOfInputs="9"><NeuralInput id="0"><DerivedField><NormContinuous field="wavelet-LHHglcmIdmn" shift="-1.32762570046891e+001" scale="1.44726662346995e+001"><LinearNorm orig="9.17333184459000e-001" norm="0.000000"/><LinearNorm orig="9.86428953254000e-001" norm="1.000000"/></NormContinuous></DerivedField></NeuralInput><NeuralInput id="1"><DerivedField><NormContinuous field="wavelet-LLLglrlmShortRunEmphasis" shift="-1.01095212207482e+001" scale="1.12058339117391e+001"><LinearNorm orig="9.02165898618000e-001" norm="0.000000"/><LinearNorm orig="9.91405129529000e-001" norm="1.000000"/></NormContinuous></DerivedField></NeuralInput><NeuralInput id="2"><DerivedField><NormContinuous field="wavelet-HHLglcmIdmn" shift="-1.06945069141918e+001" scale="1.18420778869383e+001"><LinearNorm orig="9.03093782721000e-001" norm="0.000000"/><LinearNorm orig="9.87538422382000e-001" norm="1.000000"/></NormContinuous></DerivedField></NeuralInput><NeuralInput id="3"><DerivedField><NormContinuous field="wavelet-HLHglcmIdmn" shift="-7.07443572302650e+000" scale="8.14575109019716e+000"><LinearNorm orig="8.68481696125000e-001" norm="0.000000"/><LinearNorm orig="9.91245083924000e-001" norm="1.000000"/></NormContinuous></DerivedField></NeuralInput><NeuralInput id="4"><DerivedField><NormContinuous field="wavelet-LLLglcmIdmn" shift="-4.82930992696994e+000" scale="5.87007151729344e+000"><LinearNorm orig="8.22700355991000e-001" norm="0.000000"/><LinearNorm orig="9.93056031736000e-001" norm="1.000000"/></NormContinuous></DerivedField></NeuralInput><NeuralInput id="5"><DerivedField><NormContinuous field="wavelet-LLHglszmSmallAreaEmphasis" shift="-2.83560599785252e+000" scale="4.04368255942666e+000"><LinearNorm orig="7.01243472053000e-001" norm="0.000000"/><LinearNorm orig="9.48542805100000e-001" norm="1.000000"/></NormContinuous></DerivedField></NeuralInput><NeuralInput id="6"><DerivedField><NormContinuous field="wavelet-HHLglcmInverseVariance" shift="-1.93142696168136e+000" scale="5.20591680298813e+000"><LinearNorm orig="3.71006113769000e-001" norm="0.000000"/><LinearNorm orig="5.63095238095000e-001" norm="1.000000"/></NormContinuous></DerivedField></NeuralInput><NeuralInput id="7"><DerivedField><NormContinuous field="wavelet-HLHglrlmRunEntropy" shift="-1.90876318508715e+000" scale="6.44607100239137e-001"><LinearNorm orig="2.96112652867000e+000" norm="0.000000"/><LinearNorm orig="4.51245911503000e+000" norm="1.000000"/></NormContinuous></DerivedField></NeuralInput><NeuralInput id="8"><DerivedField><NormContinuous field="wavelet-LHHgldmDependenceEntropy" shift="-1.33729715026055e+000" scale="4.37385973558703e-001"><LinearNorm orig="3.05747607629000e+000" norm="0.000000"/><LinearNorm orig="5.34378624729000e+000" norm="1.000000"/></NormContinuous></DerivedField></NeuralInput></NeuralInputs><NeuralLayer numberOfNeurons="6" activationFunction="radialBasis"><Neuron id="9" width="5.64335492574604e-001"><Con from="0" weight="9.57874544740420e-001"/><Con from="1" weight="4.46161294439081e-001"/><Con from="2" weight="1.81958945300543e-001"/><Con from="3" weight="8.39675347187182e-001"/><Con from="4" weight="9.82684628603654e-001"/><Con from="5" weight="3.97202901826393e-001"/><Con from="6" weight="1.91045093826964e-001"/><Con from="7" weight="5.38603363763870e-001"/><Con from="8" weight="3.94208394780395e-001"/></Neuron><Neuron id="10" width="1.05379348262383e+000"><Con from="0" weight="6.13543791455253e-002"/><Con from="1" weight="7.02357592531358e-001"/><Con from="2" weight="3.76621161055036e-001"/><Con from="3" weight="4.89239277946101e-001"/><Con from="4" weight="6.84976449640979e-001"/><Con from="5" weight="8.03708305631482e-001"/><Con from="6" weight="5.85132738016166e-001"/><Con from="7" weight="1.39559528868014e-001"/><Con from="8" weight="0.00000000000000e+000"/></Neuron><Neuron id="11" width="4.48066221522112e-001"><Con from="0" weight="7.32428061552474e-001"/><Con from="1" weight="6.94635088449187e-001"/><Con from="2" weight="1.02021597872705e-001"/><Con from="3" weight="7.53426898632341e-001"/><Con from="4" weight="9.47616546557816e-001"/><Con from="5" weight="3.23502024155461e-001"/><Con from="6" weight="3.66752087200100e-001"/><Con from="7" weight="2.46456914514445e-001"/><Con from="8" weight="6.57260377511569e-001"/></Neuron><Neuron id="12" width="8.54351539559614e-001"><Con from="0" weight="7.86899977888869e-001"/><Con from="1" weight="0.00000000000000e+000"/><Con from="2" weight="1.24340654091863e-002"/><Con from="3" weight="6.47848939312571e-001"/><Con from="4" weight="7.88434270778573e-001"/><Con from="5" weight="5.56594371444747e-001"/><Con from="6" weight="5.63670755134701e-001"/><Con from="7" weight="5.97036725485935e-002"/><Con from="8" weight="3.25254391933508e-001"/></Neuron><Neuron id="13" width="8.55028085035648e-001"><Con from="0" weight="5.61497770581394e-001"/><Con from="1" weight="8.85278453909915e-001"/><Con from="2" weight="2.68874313587558e-001"/><Con from="3" weight="7.18891707530076e-001"/><Con from="4" weight="8.15666349684731e-001"/><Con from="5" weight="9.19939760843442e-001"/><Con from="6" weight="0.00000000000000e+000"/><Con from="7" weight="6.69612602599543e-001"/><Con from="8" weight="3.29547334564170e-001"/></Neuron><Neuron id="14" width="4.48066221522112e-001"><Con from="0" weight="7.61825095023896e-001"/><Con from="1" weight="8.03748518647966e-001"/><Con from="2" weight="3.81996942487959e-002"/><Con from="3" weight="7.68911672570908e-001"/><Con from="4" weight="7.91047841820763e-001"/><Con from="5" weight="2.12049192065689e-001"/><Con from="6" weight="5.07036386816498e-001"/><Con from="7" weight="2.15396944367710e-002"/><Con from="8" weight="9.33805971123417e-001"/></Neuron></NeuralLayer><NeuralLayer numberOfNeurons="2" normalizationMethod="softmax"><Neuron id="15" bias="6.40085632589923e-001"><Con from="9" weight="7.36337771267172e-003"/><Con from="10" weight="-5.66505344735872e-006"/><Con from="11" weight="5.61716268503019e-002"/><Con from="12" weight="1.47878635774571e-004"/><Con from="13" weight="-9.38861717439778e-005"/><Con from="14" weight="7.83456979792639e-003"/></Neuron><Neuron id="16" bias="-4.55988820714599e-001"><Con from="9" weight="1.05839282259423e-002"/><Con from="10" weight="2.54633800904467e-005"/><Con from="11" weight="2.01048585462654e-003"/><Con from="12" weight="-4.84361589289825e-006"/><Con from="13" weight="2.32892337951809e-004"/><Con from="14" weight="7.84989357782423e-002"/></Neuron></NeuralLayer><NeuralOutputs numberOfOutputs="2"><NeuralOutput outputNeuron="15"><DerivedField optype="categorical"><NormDiscrete field="Hydrocephaly" value="0"/></DerivedField></NeuralOutput><NeuralOutput outputNeuron="16"><DerivedField optype="categorical"><NormDiscrete field="Hydrocephaly" value="1"/></DerivedField></NeuralOutput></NeuralOutputs></NeuralNetwork></PMML>
